svm_type c_svc
kernel_type rbf
gamma 5
nr_class 2
total_sv 11
rho -1.80305
label 1 -1
nr_sv 6 5
SV
34.10895984820154 1:0.39795918 2:-0.23469388 
0.714161854848541 1:-0.31632653 2:-0.21428571 
4.142666298146369 1:-0.29591837 2:-0.091836735 
5.848242928418034 1:-0.21428571 2:0.13265306 
9.838985535431112 1:0.21428571 2:0.19387755 
25.26392391549734 1:-0.051020408 2:0.25510204 
-2.196628633444826 1:-0.21428571 2:-0.39795918 
-18.9751147519802 1:0.41836735 2:-0.39795918 
-11.0177260031688 1:0.29591837 2:-0.17346939 
-9.700270005060666 1:0.2755102 2:-0.091836735 
-38.02720098688842 1:-0.030612245 2:0.17346939 
